0.10740498,-1.2809705,-6.8215275,0.47496378,1.6884608,-9.712199,3.0195925,3.4044306,-4.9020734,-1.0260761,-6.755648,-8.637305,2.0007532,-5.6245604,3.8328168,-8.639652,-5.6603312,6.1991124,-3.6322215,-4.0112686
-0.93113863,1.0360161,0.21443817,2.0528274,-0.77119017,-0.83884114,-1.0883459,-2.0652592,0.09446527,3.8778758,-0.9200294,-1.3687369,-2.4102063,-2.3918576,-1.8167311,0.46265084,-1.1079028,-1.5246854,-2.7028804,-1.5119278
-0.8406108,1.571244,-0.89562535,-2.7453237,2.3980095,0.20098183,2.5697675,-1.7738731,3.8570626,-3.0792694,0.55635136,-4.3038335,-2.0838132,-6.1840215,-5.6917477,-0.13256384,-1.5005069,-1.4357755,-5.5532174,-4.378566
0.20380941,0.3382056,-4.2779574,-12.301158,-7.481711,-6.8164163,-6.0574636,-9.315625,-9.3527155,-10.090333,-7.1305804,-7.6813517,-8.288618,-4.6456485,-7.7110953,3.1202648,1.294794,3.6082256,5.1020064,4.336259
-0.89959466,0.79494286,1.0442128,2.2456148,-0.5202899,-0.7174325,1.3718529,-1.0035564,-1.0610132,-0.66675127,-0.9255006,-1.2819881,-1.1003187,-1.0353253,-1.177577,-0.899531,-1.1042811,-0.95177734,-1.1581099,-0.85994214
-0.8086821,0.8044398,0.7906397,0.22346012,-0.31932744,-0.6187725,-0.12662533,-0.99253577,-1.1843987,-0.45193568,-0.96966213,-1.311435,-1.3251469,-0.8850064,-0.898848,0.7536615,-1.0103734,-1.0964077,-1.1511015,-1.1343898
-0.9125362,0.9641374,0.5028758,0.55524814,-0.741311,0.20939253,-0.3670203,-1.0208791,-1.176683,-0.9111641,-0.9384373,-1.3808836,-1.1482494,-1.1241262,-1.2763838,1.3516886,-1.075155,-1.2352682,-1.3272333,-1.356863
-1.2240534,1.601708,-0.36861777,1.9835783,-5.723956,1.5546982,-5.6294994,-6.6755204,-6.5338154,-0.3509411,2.7269022,-5.8990088,-2.0864692,1.8134458,0.4449443,-0.6667715,-3.425484,-6.455339,3.938003,-6.3167505
-0.9125944,0.8647131,0.8437709,0.77593434,-0.23553744,-0.6215438,-0.036213543,-0.97699136,-1.0157592,-0.78453267,-0.9450794,-1.3719207,-1.0163289,-1.0679668,-1.0357997,-0.49490228,-1.1087178,-0.9668459,-1.1483104,-1.0054791
-0.3914947,0.9572328,0.74726254,-1.1310109,-0.23220707,-0.61102515,-0.45941177,-0.7307312,-0.9701994,-0.6743874,-0.87633085,-1.1884966,-0.48811507,-0.9337535,-0.8648037,-0.5050053,-0.8245951,-0.8523493,-0.87763464,-0.81177497
-0.11006126,0.54924697,1.0801373,-0.4507011,-0.47344688,-0.62532467,0.029217048,-0.83029693,-0.9799734,-0.51669955,-0.69432235,-0.98085225,-0.6352223,-0.82707727,-0.7632123,-0.7644564,-0.8872246,-0.93013835,-0.7601025,-0.9245731
-0.85953903,0.8184287,0.783001,0.06284649,-0.5058189,-0.5909365,0.37970573,-0.9659511,-0.9928926,-0.6365908,-0.8641235,-1.3446374,-0.8535224,-1.0143615,-0.95429134,-0.34285238,-0.87455887,-1.124473,-1.1079453,-0.96417606
-0.3712664,0.8601653,0.5304391,-1.2451252,-0.1177353,-0.6116526,1.6325969,-0.9619851,-0.9940136,-0.7309153,-0.57593185,-1.3337327,-1.2759128,-1.0104336,-0.8220013,-0.44255772,-0.92701,-0.96821904,-0.9415364,-0.98926634
-0.21505085,0.045557383,3.2913253,-2.2848084,2.8330846,-2.1007383,-4.862944,1.5909817,-5.4499207,1.1672664,-3.5665946,3.5871968,0.11113054,-3.5195088,-1.3013353,-3.3539805,1.7967937,-3.754926,0.87437534,-3.4734678
0.13044834,0.39602914,-1.1145519,-0.7204392,-0.62041295,-0.63837695,1.7498963,-0.86172086,-0.85486245,-0.5699006,-0.4833734,-0.90908545,-0.83177584,-0.8089992,-0.65548766,-0.19902608,-0.7511105,-0.84669554,-0.84735197,-1.6961571
-0.91179824,0.8326291,0.98553616,1.2178092,-0.4110269,-0.75385344,-0.16126156,-0.9023108,-0.91636497,-0.633304,-0.92684567,-1.2619265,-1.1787564,-1.1065714,-0.9772761,-0.7376669,-0.9960054,-1.1626838,-1.2288829,-0.995588
1.5530506,-3.53777,0.9323746,-3.1587772,0.42064336,-4.185582,-1.5288945,4.158585,-1.859746,3.8295712,4.27541,-2.4815447,-4.5750604,-5.649604,-7.7235003,4.5757833,-2.697969,2.5769844,-2.923644,-4.423646
-1.7877802,1.8696197,4.1427503,5.010612,3.7270083,4.388637,-1.6038487,-6.129809,-5.9251194,-8.817456,-4.269704,0.60529315,1.1932309,-3.6733317,-7.444975,-1.5664177,-6.846705,-8.286003,-9.521606,-4.676772
0.10843117,-2.563068,-4.2707663,-5.855464,-3.263499,2.0757074,-5.271461,0.8160389,5.503864,-1.7486061,-8.644497,2.147103,1.7848536,2.3754902,-1.2270772,1.3092752,-5.9525957,-6.57719,-6.8492184,3.8031068
-0.9135239,0.78051865,1.1009961,0.37440065,-0.20183487,-0.59586775,0.045729943,-0.9373716,-0.9723408,-0.82168245,-0.9683765,-1.2864134,-1.051228,-1.12435,-1.0438418,-0.2395288,-0.9236635,-1.0570459,-1.1218508,-1.0393156
-1.2642746,0.7003869,3.169576,-3.0185013,-6.3745995,-4.840654,3.6250048,-3.32036,-2.6181874,3.5477715,-3.5788164,-3.7316568,3.9470263,4.9442115,-3.9040344,-2.2714477,3.2234464,-7.935499,-0.0064230557,-5.95799
-0.9003835,0.8698146,0.8804485,0.09098763,-0.6203176,-0.33994618,-0.07189531,-0.908915,-1.12536,-0.66903377,-0.86812425,-1.4151065,-1.1035212,-1.0949574,-1.009903,-0.44205084,-0.96620923,-1.2086624,-1.1947938,-0.96219605
-0.8656693,0.87667537,0.8548757,0.21735026,-0.33934757,-0.5784035,0.2022541,-0.9514792,-1.0447544,-0.583253,-0.9862603,-1.3343359,-1.1711868,-0.9271442,-0.98006207,-0.21587698,-0.9831771,-1.1439481,-1.1650048,-1.0655221
-0.15410905,0.8810696,-0.62316966,-0.50032586,-0.45617676,-0.57917416,-0.25502598,-0.84579235,-0.82731754,-0.671678,-0.7502,-1.012605,-0.7016344,-0.6888137,-0.48232976,-0.650734,-0.76522774,-0.87113255,-0.86914927,-0.800889
-0.8416567,0.9238639,0.81295264,0.2646398,-0.5021963,-0.53163993,-0.036806624,-1.0363978,-1.0858182,-0.6764993,-0.8945386,-1.3964115,-1.3481933,-1.2509953,-1.0137742,1.0852895,-1.0567572,-1.1825287,-1.1521593,-1.1434088
-0.9230409,0.94744223,0.6975245,1.4205078,-1.7304914,1.207065,1.305276,-1.5448115,-1.0873041,-0.99885404,-0.81679654,-1.4186473,-1.8981271,-1.2595584,-1.4221927,-0.9827075,-1.2307618,-1.4407365,-1.4347618,-1.2755251
1.7448207,-3.264607,0.38921988,-1.70938,-5.287551,-1.4160081,1.4643356,-8.216114,-2.9279222,-0.49100104,0.86338794,4.3497295,-6.277177,-3.9473145,4.1635475,-6.7299795,3.199884,-4.00427,-3.931875,1.4173752
-0.83143234,0.8782515,0.7809148,0.23577468,-0.5614937,-0.6705052,1.232792,-0.9311875,-1.0520477,-0.8052329,-0.9827211,-1.275136,-1.1278303,-1.1170437,-1.0759236,-0.06834772,-1.0416888,-1.1120965,-1.1253234,-1.0673491
-0.36173102,0.84220964,1.0427053,-0.491256,-0.57331246,-0.8624235,-0.29312733,-0.8746395,-0.8221778,-0.43759802,-0.73894554,-1.1408862,-0.7302112,-0.8434371,-0.642479,-0.26635167,-0.9098599,-0.9255927,-0.89763474,-0.82057697
-0.88959116,0.86853665,0.8627151,0.605158,-0.49451613,-0.5822305,0.05566565,-0.9383601,-1.1494043,-0.8182829,-1.0816343,-1.2406622,-1.0755074,-1.0416341,-1.0298121,-0.50479555,-0.9666738,-0.9758729,-1.1265047,-1.1118685
-0.85197675,0.7690302,0.88936186,0.37687266,-0.39072427,-0.48020503,1.9092702,-0.8828892,-1.0494817,-0.6540514,-0.9756899,-1.3029773,-1.1622607,-0.83400226,-0.9755955,-0.46940407,-1.082282,-1.0485816,-1.1503683,-0.86199856
-0.4705405,0.7333929,2.3535154,-1.7599233,-0.5338793,-1.5917926,2.0133393,-2.1283314,-1.2690909,1.2249324,-0.94369406,-2.4260907,-5.4716945,-1.1570293,0.027041387,1.2246734,-0.1761138,-1.4441729,-0.34743443,-1.4212508
1.3593402,0.5128033,-3.2309504,0.19624923,-2.7448177,-2.3730958,-2.2826128,2.150478,-2.949733,-2.227369,-1.3549628,-2.4593863,-3.6248481,2.2043343,-3.8030434,-3.1960592,0.9651608,-3.979739,-4.0427313,-3.0962167
-0.9107465,0.81539065,0.8684188,0.4462979,-0.24670455,-0.4943209,1.127025,-1.031424,-1.1861204,-0.73019195,-1.0274322,-1.4214948,-1.0843955,-1.0306525,-0.94277966,-0.5529847,-0.9663322,-1.0170177,-1.1381024,-0.9962981
0.3504917,-0.15603112,1.0735321,-0.5211911,-0.6694417,-0.694035,1.3112519,-0.95053273,-0.89134514,-0.64152265,-0.6998127,-1.2832596,-0.89322287,-1.0633912,-1.0078299,-2.8376615,-1.4599036,-1.356046,-1.39786,-0.0873364
-0.87914765,0.8699544,0.88652986,0.28006783,-0.4823524,-0.42824578,0.71955746,-1.01802,-1.0054129,-0.6728004,-0.96174556,-1.362718,-1.1645832,-1.0465957,-0.9878867,-0.21454147,-1.033592,-1.0501986,-1.1456288,-1.0335276
-0.7858566,0.76844376,1.0161184,2.7886186,0.3290143,-1.8511001,1.3544587,-1.3146914,-1.3179208,-0.86252046,-0.87396437,-1.7059582,-1.8617271,-1.5087852,-1.2517263,1.0061827,-1.0607027,-1.0192467,-1.35929,-1.0306462
-0.55417496,1.3944238,-0.09022637,-1.4444323,-0.6943453,-2.5559673,-2.4644032,-1.0520868,-0.94347477,-0.1561249,-0.6004499,-1.5165923,-2.974483,-1.3799928,-0.8783856,1.4609281,-0.9572725,-1.0793474,-1.1991379,-1.2509955
-0.8623831,0.77084666,1.0464865,0.49499604,-0.31092507,-0.5439321,1.7924432,-0.95680994,-1.0213343,-0.66238594,-0.9963753,-1.2829951,-0.99165285,-1.0090653,-0.8986602,-0.61759675,-1.0649,-1.0907246,-1.1038772,-0.98261905
-0.721563,1.0227169,0.36432,0.25675014,-0.1695158,-0.8359389,0.65271276,-0.25517213,-1.1333988,-1.0273436,-0.8434321,-1.4364257,-1.4153235,-1.3085843,-0.94261897,-0.95620716,-0.93466336,-1.1921555,-1.2288927,-1.1422348
-0.9069575,0.9546303,0.50182885,-0.56090003,-0.8117288,0.7398445,0.64203656,-1.3608571,-1.0756558,-0.6157854,-0.7013292,-1.4792086,-1.049924,-1.0402722,-1.196455,1.1259202,-0.9211102,-1.1362499,-1.3322501,-1.1926585
-0.890685,0.69137996,1.022441,0.96947455,-0.38720557,-0.40748274,1.6963166,-0.89781743,-1.0759785,-0.5454092,-0.8061535,-1.3303547,-1.1336957,-1.0107768,-0.8286466,-0.6159458,-0.99635637,-0.99347776,-1.0701209,-0.90725505
-0.91200995,0.84582776,0.7764189,0.67650867,-0.5390424,-0.56435597,0.8012587,-0.8996492,-1.1610603,-0.5243666,-0.8970971,-1.4012648,-1.1015167,-0.983233,-1.0222036,0.15512882,-1.0480068,-1.0043266,-1.1388863,-1.0979387
-0.83107173,0.8605544,0.8461495,0.24115601,-0.42927787,-0.54417753,1.6760092,-0.8621014,-1.1237192,-0.57720095,-0.726521,-1.3017544,-1.1399002,-0.9577501,-0.98243463,-0.5391729,-1.0292834,-1.0043516,-0.9726276,-0.97072697
-0.89251924,0.8765782,0.7479697,0.35860294,-0.5130393,-0.54001904,0.85877895,-1.1515878,-1.1417125,-0.7206051,-1.0952382,-1.2170215,-1.1354464,-1.0943662,-1.006488,-0.08093159,-0.9939779,-1.1707257,-1.1626503,-0.95685196
-0.028961727,0.31098026,1.5591012,-1.0463694,-0.75313157,-0.45926216,1.0680314,-0.91327065,-0.7850844,-0.69771016,-0.6719232,-1.0202128,-0.9796003,-0.7979261,-0.75545764,-0.9415764,-0.95569956,-0.91910076,-0.88674563,-1.0455201
-0.88555664,0.68086207,1.4032257,0.37872678,0.0071024667,-1.2072928,1.150188,-0.93766165,-1.0973604,-0.8244975,-1.0323478,-1.5753632,-1.0697968,-1.2649045,-1.2299801,-0.5021834,0.48945034,-1.1448392,-1.5663141,-0.7455702
-0.8308645,0.7638243,1.0207747,0.383078,-0.2980065,-0.5534825,1.1245532,-0.9413239,-1.0876093,-0.7330186,-0.96596164,-1.3815285,-1.107689,-0.9244882,-0.9157835,-0.68554956,-0.87360585,-1.0186448,-1.098188,-1.0051185
-0.11633099,0.5796981,1.7917395,-0.7188513,-0.5602083,-0.61214167,-0.049864206,-0.7523334,-0.8458425,-0.55210555,-0.64264786,-1.0310979,-0.6910532,-0.83332527,-0.84492683,-0.7918252,-0.9297785,-0.77817094,-0.7917795,-0.89029723
-0.20602778,0.9101473,0.181821,-0.3732323,-0.6167756,-0.82647604,-0.43029237,-0.7623992,-0.81982887,-0.6404027,-0.7146182,-0.9649211,-0.7476231,-0.85302174,-0.7802745,-0.54553837,-0.79822785,-0.8317662,-0.79074496,-0.7841537